digraph Tree {
node [shape=box, style="filled, rounded", color="black", fontname="helvetica"] ;
edge [fontname="helvetica"] ;
0 [label="od280/od315稀释葡萄酒 <= 2.19\nentropy = 1.568\nsamples = 124\nvalue = [43, 48, 33]\nclass = 雪莉", fillcolor="#f3fdf7"] ;
1 [label="颜色强度 <= 3.825\nentropy = 0.562\nsamples = 38\nvalue = [0, 5, 33]\nclass = 贝尔摩德", fillcolor="#9457e9"] ;
0 -> 1 [labeldistance=2.5, labelangle=45, headlabel="True"] ;
2 [label="entropy = 0.0\nsamples = 4\nvalue = [0, 4, 0]\nclass = 雪莉", fillcolor="#39e581"] ;
1 -> 2 ;
3 [label="灰的碱性 <= 17.15\nentropy = 0.191\nsamples = 34\nvalue = [0, 1, 33]\nclass = 贝尔摩德", fillcolor="#853fe6"] ;
1 -> 3 ;
4 [label="entropy = 0.0\nsamples = 1\nvalue = [0, 1, 0]\nclass = 雪莉", fillcolor="#39e581"] ;
3 -> 4 ;
5 [label="entropy = 0.0\nsamples = 33\nvalue = [0, 0, 33]\nclass = 贝尔摩德", fillcolor="#8139e5"] ;
3 -> 5 ;
6 [label="脯氨酸 <= 726.5\nentropy = 1.0\nsamples = 86\nvalue = [43, 43, 0]\nclass = 琴酒", fillcolor="#ffffff"] ;
0 -> 6 [labeldistance=2.5, labelangle=-45, headlabel="False"] ;
7 [label="entropy = 0.0\nsamples = 41\nvalue = [0, 41, 0]\nclass = 雪莉", fillcolor="#39e581"] ;
6 -> 7 ;
8 [label="颜色强度 <= 3.435\nentropy = 0.262\nsamples = 45\nvalue = [43, 2, 0]\nclass = 琴酒", fillcolor="#e68742"] ;
6 -> 8 ;
9 [label="entropy = 0.0\nsamples = 2\nvalue = [0, 2, 0]\nclass = 雪莉", fillcolor="#39e581"] ;
8 -> 9 ;
10 [label="entropy = 0.0\nsamples = 43\nvalue = [43, 0, 0]\nclass = 琴酒", fillcolor="#e58139"] ;
8 -> 10 ;
}